digraph Tree {
node [shape=box, style="filled, rounded", color="black", fontname=helvetica] ;
edge [fontname=helvetica] ;
0 [label="X[0] <= 2.5\nentropy = 0.97\nsamples = 620\nvalue = [369, 251]", fillcolor="#f7d7c0"] ;
1 [label="X[4] <= 52.28\nentropy = 0.98\nsamples = 282\nvalue = [117, 165]", fillcolor="#c5e2f7"] ;
0 -> 1 [labeldistance=2.5, labelangle=45, headlabel="True"] ;
2 [label="X[3] <= 15.0\nentropy = 1.0\nsamples = 187\nvalue = [97, 90]", fillcolor="#fdf6f1"] ;
1 -> 2 ;
3 [label="entropy = 0.0\nsamples = 11\nvalue = [0, 11]", fillcolor="#399de5"] ;
2 -> 3 ;
4 [label="X[4] <= 7.75\nentropy = 0.99\nsamples = 176\nvalue = [97, 79]", fillcolor="#fae8da"] ;
2 -> 4 ;
5 [label="entropy = 0.0\nsamples = 8\nvalue = [8, 0]", fillcolor="#e58139"] ;
4 -> 5 ;
6 [label="entropy = 1.0\nsamples = 168\nvalue = [89, 79]", fillcolor="#fcf1e9"] ;
4 -> 6 ;
7 [label="X[3] <= 63.0\nentropy = 0.74\nsamples = 95\nvalue = [20, 75]", fillcolor="#6eb7ec"] ;
1 -> 7 ;
8 [label="X[3] <= 28.5\nentropy = 0.69\nsamples = 92\nvalue = [17, 75]", fillcolor="#66b3eb"] ;
7 -> 8 ;
9 [label="entropy = 0.89\nsamples = 36\nvalue = [11, 25]", fillcolor="#90c8f0"] ;
8 -> 9 ;
10 [label="entropy = 0.49\nsamples = 56\nvalue = [6, 50]", fillcolor="#51a9e8"] ;
8 -> 10 ;
11 [label="entropy = 0.0\nsamples = 3\nvalue = [3, 0]", fillcolor="#e58139"] ;
7 -> 11 ;
12 [label="X[4] <= 23.35\nentropy = 0.82\nsamples = 338\nvalue = [252, 86]", fillcolor="#eeac7d"] ;
0 -> 12 [labeldistance=2.5, labelangle=-45, headlabel="False"] ;
13 [label="X[3] <= 15.5\nentropy = 0.86\nsamples = 287\nvalue = [205, 82]", fillcolor="#efb388"] ;
12 -> 13 ;
14 [label="X[3] <= 7.5\nentropy = 0.72\nsamples = 25\nvalue = [5, 20]", fillcolor="#6ab6ec"] ;
13 -> 14 ;
15 [label="entropy = 0.37\nsamples = 14\nvalue = [1, 13]", fillcolor="#48a5e7"] ;
14 -> 15 ;
16 [label="entropy = 0.95\nsamples = 11\nvalue = [4, 7]", fillcolor="#aad5f4"] ;
14 -> 16 ;
17 [label="X[3] <= 36.5\nentropy = 0.79\nsamples = 262\nvalue = [200, 62]", fillcolor="#eda876"] ;
13 -> 17 ;
18 [label="entropy = 0.84\nsamples = 222\nvalue = [163, 59]", fillcolor="#eeaf81"] ;
17 -> 18 ;
19 [label="entropy = 0.38\nsamples = 40\nvalue = [37, 3]", fillcolor="#e78b49"] ;
17 -> 19 ;
20 [label="X[4] <= 31.33\nentropy = 0.4\nsamples = 51\nvalue = [47, 4]", fillcolor="#e78c4a"] ;
12 -> 20 ;
21 [label="entropy = 0.0\nsamples = 27\nvalue = [27, 0]", fillcolor="#e58139"] ;
20 -> 21 ;
22 [label="X[3] <= 24.5\nentropy = 0.65\nsamples = 24\nvalue = [20, 4]", fillcolor="#ea9a61"] ;
20 -> 22 ;
23 [label="entropy = 0.31\nsamples = 18\nvalue = [17, 1]", fillcolor="#e78845"] ;
22 -> 23 ;
24 [label="entropy = 1.0\nsamples = 6\nvalue = [3, 3]", fillcolor="#ffffff"] ;
22 -> 24 ;
}